<?xml version="1.0"?>
<opencv_storage>
<cascade>
  <stageType>BOOST</stageType>
  <featureType>LBP</featureType>
  <height>18</height>
  <width>18</width>
  <stageParams>
    <boostType>GAB</boostType>
    <minHitRate>9.9500000476837158e-001</minHitRate>
    <maxFalseAlarm>5.0000000000000000e-001</maxFalseAlarm>
    <weightTrimRate>9.4999999999999996e-001</weightTrimRate>
    <maxDepth>1</maxDepth>
    <maxWeakCount>100</maxWeakCount></stageParams>
  <featureParams>
    <maxCatCount>256</maxCatCount>
    <featSize>1</featSize></featureParams>
  <stageNum>15</stageNum>
  <stages>
    <!-- stage 0 -->
    <_>
      <maxWeakCount>6</maxWeakCount>
      <stageThreshold>-1.7396101951599121e+000</stageThreshold>
      <weakClassifiers>
        <_>
          <internalNodes>
            0 -1 36 -2105654 -4204630 1490411232 -10488527 -4207922
            -267301 -6303745 -2097201</internalNodes>
          <leafValues>
            -8.6128205060958862e-001 6.6548645496368408e-001</leafValues></_>
        <_>
          <internalNodes>
            0 -1 8 -8200472 -7346048 -999109491 -6296799 -555820306
            -83887425 -56701201 -2101601</internalNodes>
          <leafValues>
            -6.8058109283447266e-001 4.5573246479034424e-001</leafValues></_>
        <_>
          <internalNodes>
            0 -1 84 -630457010 -982592089 1391721462 -578813953
            -44040884 -548279722 -680001538 -33555457</internalNodes>
          <leafValues>
            -5.2040922641754150e-001 3.6398303508758545e-001</leafValues></_>
        <_>
          <internalNodes>
            0 -1 102 2074836667 -1356645718 1887171313 2052043181
            -1083233142 -269488314 1548093151 -838449477</internalNodes>
          <leafValues>
            -3.7752851843833923e-001 4.2823114991188049e-001</leafValues></_>
        <_>
          <internalNodes>
            0 -1 52 -150996830 -1063954 -665389840 -1789330091
            -275791922 -275854401 1678047413 -579469953</internalNodes>
          <leafValues>
            -5.1846516132354736e-001 3.0287981033325195e-001</leafValues></_>
        <_>
          <internalNodes>
            0 -1 311 1067605 1415102551 -1761550703 1564762609
            -1916733792 -1186933844 -616498212 -881832965</internalNodes>
          <leafValues>
            -4.1440254449844360e-001 4.1289612650871277e-001</leafValues></_></weakClassifiers></_>
    <!-- stage 1 -->
    <_>
      <maxWeakCount>9</maxWeakCount>
      <stageThreshold>-1.8499426841735840e+000</stageThreshold>
      <weakClassifiers>
        <_>
          <internalNodes>
            0 -1 12 -4465462 -598 -538968069 -513 -274738 -8197
            -67108865 -1</internalNodes>
          <leafValues>
            -7.6688253879547119e-001 4.9401524662971497e-001</leafValues></_>
        <_>
          <internalNodes>
            0 -1 187 -1029 -537665537 -135299085 1502870943 -140469
            -2097333 -538968077 -214697161</internalNodes>
          <leafValues>
            -4.6620541810989380e-001 4.9295598268508911e-001</leafValues></_>
        <_>
          <internalNodes>
            0 -1 51 -6194 -808470833 -161480974 -83886401 -1181729
            -45225051 -144745537 -52429829</internalNodes>
          <leafValues>
            -4.3656221032142639e-001 3.8027822971343994e-001</leafValues></_>
        <_>
          <internalNodes>
            0 -1 87 -624033818 1524825551 -1224818958 -721626113
            2098036677 1146404180 -134742025 -170393737</internalNodes>
          <leafValues>
            -5.3777199983596802e-001 2.5069206953048706e-001</leafValues></_>
        <_>
          <internalNodes>
            0 -1 302 1074839473 -716410915 1543567091 1567637340 1089208
            -289865735 -619644931 -538386467</internalNodes>
          <leafValues>
            -3.0633434653282166e-001 3.9136639237403870e-001</leafValues></_>
        <_>
          <internalNodes>
            0 -1 266 2102415376 -1866411704 -714018351 -669976715
            -615385776 -637208317 1129643509 -736830048</internalNodes>
          <leafValues>
            -5.1304501295089722e-001 2.0346197485923767e-001</leafValues></_>
        <_>
          <internalNodes>
            0 -1 78 -12919560 -1074332895 -464982488 -34627795
            -288732465 -88376673 -285840881 -1143214161</internalNodes>
          <leafValues>
            -4.3192040920257568e-001 2.9844298958778381e-001</leafValues></_>
        <_>
          <internalNodes>
            0 -1 140 -1212460805 -274212888 1390080759 -17580715
            -1684080420 -4371 -1674567444 -1807950736</internalNodes>
          <leafValues>
            -3.4760427474975586e-001 3.4710952639579773e-001</leafValues></_>
        <_>
          <internalNodes>
            0 -1 240 -1274775852 2087882493 1960071930 -766186704
            -183175340 -1806656827 2100427696 -2752521</internalNodes>
          <leafValues>
            -4.1698566079139709e-001 2.9200565814971924e-001</leafValues></_></weakClassifiers></_>
    <!-- stage 2 -->
    <_>
      <maxWeakCount>13</maxWeakCount>
      <stageThreshold>-1.8122478723526001e+000</stageThreshold>
      <weakClassifiers>
        <_>
          <internalNodes>
            0 -1 41 -67108886 -1048593 -4325646 -1 -1052721 -541074981
            -1 -1</internalNodes>
          <leafValues>
            -7.6498299837112427e-001 3.4051209688186646e-001</leafValues></_>
        <_>
          <internalNodes>
            0 -1 26 -46137366 -6300768 1557855992 1577058301 -26283298
            -6292065 -1304364289 -11075585</internalNodes>
          <leafValues>
            -5.5569052696228027e-001 2.7492254972457886e-001</leafValues></_>
        <_>
          <internalNodes>
            0 -1 25 -5517061 -273712214 -16843017 -555764065 -2105634
            -5259297 -564859137 -821099509</internalNodes>
          <leafValues>
            -3.2058581709861755e-001 4.3685120344161987e-001</leafValues></_>
        <_>
          <internalNodes>
            0 -1 208 -9437445 -337254998 847180017 1533003740 -369103282
            -1964157234 -960891945 -536871969</internalNodes>
          <leafValues>
            -2.6244261860847473e-001 4.6576330065727234e-001</leafValues></_>
        <_>
          <internalNodes>
            0 -1 310 -1679598081 -28993 -672174721 65215923 724048552
            -1090639605 -621925441 159515282</internalNodes>
          <leafValues>
            -3.3031430840492249e-001 3.4912720322608948e-001</leafValues></_>
        <_>
          <internalNodes>
            0 -1 143 -1077944581 -3409016 1383559411 1314612953 -2359734
            -555790405 -1084999845 -888676710</internalNodes>
          <leafValues>
            -3.0338796973228455e-001 3.8281112909317017e-001</leafValues></_>
        <_>
          <internalNodes>
            0 -1 62 -1145326593 -2094370096 156176247 1027539457
            -1415894869 -353828190 125307402 18546696</internalNodes>
          <leafValues>
            -3.5881981253623962e-001 2.9509672522544861e-001</leafValues></_>
        <_>
          <internalNodes>
            0 -1 181 -964166048 -481496626 -210634000 -1812595208
            -143339695 -451823107 -558237964 -2143945097</internalNodes>
          <leafValues>
            -4.6135649085044861e-001 2.0582583546638489e-001</leafValues></_>
        <_>
          <internalNodes>
            0 -1 172 -1363387940 -6585183 -274796941 738101809
            -325188577 -378565809 -421615049 -290730561</internalNodes>
          <leafValues>
            -4.4761216640472412e-001 2.1110750734806061e-001</leafValues></_>
        <_>
          <internalNodes>
            0 -1 271 -33489679 -119476322 -616497807 -590070793
            -2042577728 -573505545 -263061508 -1664548881</internalNodes>
          <leafValues>
            -2.5819841027259827e-001 3.9073628187179565e-001</leafValues></_>
        <_>
          <internalNodes>
            0 -1 22 -1095819521 -1076419973 1503338327 305082415
            -85588293 -1392441310 39197887 150994944</internalNodes>
          <leafValues>
            -4.0553927421569824e-001 2.5527945160865784e-001</leafValues></_>
        <_>
          <internalNodes>
            0 -1 129 -2113302400 -423480760 -725062480 -598383363
            -1550315518 -534678880 13365712 -203693880</internalNodes>
          <leafValues>
            -3.7472659349441528e-001 2.6177644729614258e-001</leafValues></_>
        <_>
          <internalNodes>
            0 -1 31 -795875256 -869835168 -225599234 -798163009
            -2072297660 -2074962922 -707317257 -178927534</internalNodes>
          <leafValues>
            -4.4711855053901672e-001 2.1368786692619324e-001</leafValues></_></weakClassifiers></_>
    <!-- stage 3 -->
    <_>
      <maxWeakCount>16</maxWeakCount>
      <stageThreshold>-1.6696213483810425e+000</stageThreshold>
      <weakClassifiers>
        <_>
          <internalNodes>
            0 -1 113 -5547830 -1322033 -167913477 -35660289 -71574577
            -12065 -2098177 -33</internalNodes>
          <leafValues>
            -6.0976779460906982e-001 2.7386868000030518e-001</leafValues></_>
        <_>
          <internalNodes>
            0 -1 158 -262149 -4472882 1945727987 -1281361985 -182 -49
            -100663305 -77856773</internalNodes>
          <leafValues>
            -3.4358811378479004e-001 4.4515597820281982e-001</leafValues></_>
        <_>
          <internalNodes>
            0 -1 123 -1078208325 -410010742 1411383025 2120220149
            -19145010 -1076943145 -145227777 -2105345</internalNodes>
          <leafValues>
            -2.5658598542213440e-001 4.6617951989173889e-001</leafValues></_>
        <_>
          <internalNodes>
            0 -1 15 -1364525569 -1879615619 1058995967 -65233827
            -18153537 -19956301 -1715804417 -1936456460</internalNodes>
          <leafValues>
            -4.3065086007118225e-001 2.6526182889938354e-001</leafValues></_>
        <_>
          <internalNodes>
            0 -1 48 -27338014 -7096239 472972784 -42861187 -284527105
            -1037442851 1226113021 -579470339</internalNodes>
          <leafValues>
            -3.9579874277114868e-001 2.6453509926795959e-001</leafValues></_>
        <_>
          <internalNodes>
            0 -1 279 1040169727 -1140907394 43985471 580845823 -84177396
            -64946 753797946 172105730</internalNodes>
          <leafValues>
            -4.5606207847595215e-001 1.9078442454338074e-001</leafValues></_>
        <_>
          <internalNodes>
            0 -1 264 -79997611 -530052 -572565025 1971060565 1237880831
            -4203321 -1346568227 -1978640304</internalNodes>
          <leafValues>
            -3.6858394742012024e-001 2.6129639148712158e-001</leafValues></_>
        <_>
          <internalNodes>
            0 -1 191 -373564677 -303065874 -490735917 -89131267 -857010
            -1920045106 1456928439 -538978369</internalNodes>
          <leafValues>
            -2.4604317545890808e-001 3.5668626427650452e-001</leafValues></_>
        <_>
          <internalNodes>
            0 -1 269 -1214540877 -5261126 -807967817 -1412068300
            -1413504102 -1347878728 759366055 42598824</internalNodes>
          <leafValues>
            -3.3609208464622498e-001 2.5452351570129395e-001</leafValues></_>
        <_>
          <internalNodes>
            0 -1 154 -2079041412 -1001890475 2066423259 -597666691
            -1864333226 -705594744 -1910195983 -618506760</internalNodes>
          <leafValues>
            -3.6293146014213562e-001 2.3308117687702179e-001</leafValues></_>
        <_>
          <internalNodes>
            0 -1 90 1275101008 -859284588 1349948497 -597892235
            -785008976 -795546168 1694626261 -570426977</internalNodes>
          <leafValues>
            -3.2043808698654175e-001 2.6268279552459717e-001</leafValues></_>
        <_>
          <internalNodes>
            0 -1 98 -10297988 1561006944 1818020013 2009711933
            -1942565009 -69311659 969539983 -441231793</internalNodes>
          <leafValues>
            -3.8855648040771484e-001 2.0754212141036987e-001</leafValues></_>
        <_>
          <internalNodes>
            0 -1 138 1213773424 -867647450 -65208332 -213855064
            -737021120 -1722680248 -649009676 -112137735</internalNodes>
          <leafValues>
            -3.5535553097724915e-001 2.2955061495304108e-001</leafValues></_>
        <_>
          <internalNodes>
            0 -1 173 -1643677150 982412028 -472951372 -1454637121
            -372343503 -909326115 -547826160 -1052639917</internalNodes>
          <leafValues>
            -4.7279345989227295e-001 1.7749254405498505e-001</leafValues></_>
        <_>
          <internalNodes>
            0 -1 303 435535869 -577126913 1496476635 16024289 263372779
            -1410722838 -846126099 10503172</internalNodes>
          <leafValues>
            -4.1764959692955017e-001 2.0194309949874878e-001</leafValues></_>
        <_>
          <internalNodes>
            0 -1 260 -1035199398 -1293541683 1096600828 1500834140
            -1038681552 1081093249 224054954 -136144673</internalNodes>
          <leafValues>
            -3.1080546975135803e-001 2.6048150658607483e-001</leafValues></_></weakClassifiers></_>
    <!-- stage 4 -->
    <_>
      <maxWeakCount>17</maxWeakCount>
      <stageThreshold>-1.5713486671447754e+000</stageThreshold>
      <weakClassifiers>
        <_>
          <internalNodes>
            0 -1 45 -18 -271582737 -150997250 -262145 -2097201 -83889409
            -268443649 -1</internalNodes>
          <leafValues>
            -6.9823998212814331e-001 1.3989743590354919e-001</leafValues></_>
        <_>
          <internalNodes>
            0 -1 146 -551567158 939515880 1457451250 924819455
            -269497778 -1196720549 -674373641 361228191</internalNodes>
          <leafValues>
            -5.7631051540374756e-001 1.7875346541404724e-001</leafValues></_>
        <_>
          <internalNodes>
            0 -1 6 -22348550 -271641809 -19505923 -1103687905 2131687158
            -5246153 -12136965 -821340865</internalNodes>
          <leafValues>
            -4.1088306903839111e-001 2.3206600546836853e-001</leafValues></_>
        <_>
          <internalNodes>
            0 -1 37 -565249 -2926992 1231536061 1062817945 -12940628
            -1612118526 178579599 0</internalNodes>
          <leafValues>
            -3.5707008838653564e-001 2.7309188246726990e-001</leafValues></_>
        <_>
          <internalNodes>
            0 -1 301 1069529075 -541127953 2142199799 433273685
            185735355 -2001135426 731591627 134218240</internalNodes>
          <leafValues>
            -4.0383118391036987e-001 2.2753892838954926e-001</leafValues></_>
        <_>
          <internalNodes>
            0 -1 184 -3145734 -573609480 -1247805488 -2109485090
            -85475569 -1147147493 -17854734 -1946097128</internalNodes>
          <leafValues>
            -3.2915291190147400e-001 2.6550394296646118e-001</leafValues></_>
        <_>
          <internalNodes>
            0 -1 311 1547754960 -766217763 1195660625 1426069919
            -2101281328 -578496072 -1672094728 -539951174</internalNodes>
          <leafValues>
            -2.9097262024879456e-001 2.8666552901268005e-001</leafValues></_>
        <_>
          <internalNodes>
            0 -1 55 -151034334 -1120410649 452919024 608108503
            -1493230642 -830128433 1607981045 1348861727</internalNodes>
          <leafValues>
            -6.0252702236175537e-001 1.2551560997962952e-001</leafValues></_>
        <_>
          <internalNodes>
            0 -1 95 -304611337 1691318646 -1264582666 -462007062
            2096560743 1439004782 -1075581072 -1001068698</internalNodes>
          <leafValues>
            -4.3045663833618164e-001 1.6066990792751312e-001</leafValues></_>
        <_>
          <internalNodes>
            0 -1 214 1088532 68445376 1314447325 1556109567 -591340720
            -2143229099 -112852995 -547489865</internalNodes>
          <leafValues>
            -2.9344028234481812e-001 2.7484682202339172e-001</leafValues></_>
        <_>
          <internalNodes>
            0 -1 13 2111290696 -1278340175 1964047657 -712409211
            -164552961 -1307900933 -1437831329 -35684702</internalNodes>
          <leafValues>
            -3.8879236578941345e-001 2.0711958408355713e-001</leafValues></_>
        <_>
          <internalNodes>
            0 -1 59 -1906477200 -859541568 1947497713 -589432010
            392021856 -982860046 624193876 -581832230</internalNodes>
          <leafValues>
            -3.8869491219520569e-001 1.8060141801834106e-001</leafValues></_>
        <_>
          <internalNodes>
            0 -1 185 -562291976 -808680734 -260185568 1627355120
            -215050232 -881181323 -940117948 6454608</internalNodes>
          <leafValues>
            -4.7703686356544495e-001 1.5374554693698883e-001</leafValues></_>
        <_>
          <internalNodes>
            0 -1 188 1058931266 2079059352 338654192 -1723865123
            -1680897266 -14684082 1537208227 469888784</internalNodes>
          <leafValues>
            -4.0187025070190430e-001 1.7235320806503296e-001</leafValues></_>
        <_>
          <internalNodes>
            0 -1 309 151017072 2089989369 2064448477 357629649
            -1051680776 -131593036 -29034532 -1659834424</internalNodes>
          <leafValues>
            -3.2890889048576355e-001 2.3007743060588837e-001</leafValues></_>
        <_>
          <internalNodes>
            0 -1 80 -151015425 -69528395 1030930329 2111520031
            1258017503 -1074055322 555383739 995819538</internalNodes>
          <leafValues>
            -2.2385279834270477e-001 3.2334244251251221e-001</leafValues></_>
        <_>
          <internalNodes>
            0 -1 69 604864383 196758019 209548037 484235595 1671426030
            192252637 137125133 1074058564</internalNodes>
          <leafValues>
            -4.3776851892471313e-001 1.5169507265090942e-001</leafValues></_></weakClassifiers></_>
    <!-- stage 5 -->
    <_>
      <maxWeakCount>20</maxWeakCount>
      <stageThreshold>-1.5611191987991333e+000</stageThreshold>
      <weakClassifiers>
        <_>
          <internalNodes>
            0 -1 141 -5513990 -143657496 -656482576 -77595651 -744816950
            -73409601 -878773249 -4202497</internalNodes>
          <leafValues>
            -5.8817148208618164e-001 1.5484468638896942e-001</leafValues></_>
        <_>
          <internalNodes>
            0 -1 44 -144708950 -269486098 -25169696 2097148927
            2111793374 -69240513 -11051009 1884638687</internalNodes>
          <leafValues>
            -5.2868372201919556e-001 1.9352884590625763e-001</leafValues></_>
        <_>
          <internalNodes>
            0 -1 115 -2941888 -10489000 -77856863 -1247807203
            -1146099377 -356617221 165652879 -1894019937</internalNodes>
          <leafValues>
            -4.7440439462661743e-001 1.5989263355731964e-001</leafValues></_>
        <_>
          <internalNodes>
            0 -1 155 -939066286 -833957394 1392049396 -46995460
            -948052928 -874736699 -983305732 -583803646</internalNodes>
          <leafValues>
            -3.4241819381713867e-001 2.2383055090904236e-001</leafValues></_>
        <_>
          <internalNodes>
            0 -1 310 1608474623 -241 -541100033 463677943 -1953986392
            -1612251037 -1343537253 173670954</internalNodes>
          <leafValues>
            -2.7830046415328979e-001 2.6925092935562134e-001</leafValues></_>
        <_>
          <internalNodes>
            0 -1 150 1212691536 -998180012 -732309515 -598671361
            1077952880 -1737430896 -1789600555 -7480642</internalNodes>
          <leafValues>
            -3.2580143213272095e-001 2.2484305500984192e-001</leafValues></_>
        <_>
          <internalNodes>
            0 -1 129 -2071293256 -828326712 -1853568335 -547507628
            -1870040896 -1595769104 281145757 -70526759</internalNodes>
          <leafValues>
            -2.7422079443931580e-001 2.7739176154136658e-001</leafValues></_>
        <_>
          <internalNodes>
            0 -1 290 -10503213 -69231656 356400855 27112805 2063315611
            -1346755928 984558267 134873098</internalNodes>
          <leafValues>
            -2.9118523001670837e-001 2.3458467423915863e-001</leafValues></_>
        <_>
          <internalNodes>
            0 -1 126 1602173958 1569162083 2061136626 -1242598961
            -374547634 -923143964 734519159 1354102679</internalNodes>
          <leafValues>
            -4.9738630652427673e-001 1.4844956994056702e-001</leafValues></_>
        <_>
          <internalNodes>
            0 -1 235 -1041809886 -1603633508 -711461007 2054745563
            2034302320 -2141917760 -96142876 -659506815</internalNodes>
          <leafValues>
            -4.0115624666213989e-001 1.7059086263179779e-001</leafValues></_>
        <_>
          <internalNodes>
            0 -1 117 -1060896552 -86216668 -182912513 -730042052
            -1168576288 -225439584 -343753508 -72853288</internalNodes>
          <leafValues>
            -2.9761731624603271e-001 2.4011071026325226e-001</leafValues></_>
        <_>
          <internalNodes>
            0 -1 68 2109464575 -272983424 838939515 2103408786
            -1212506184 -2021061428 185205019 4096</internalNodes>
          <leafValues>
            -3.7132123112678528e-001 1.6648910939693451e-001</leafValues></_>
        <_>
          <internalNodes>
            0 -1 31 -860106750 -964719616 1957143766 -597900068
            -56651707 -1253857984 -1270143489 -38288907</internalNodes>
          <leafValues>
            -3.4896966814994812e-001 1.8135295808315277e-001</leafValues></_>
        <_>
          <internalNodes>
            0 -1 62 328955899 -1893057550 186877983 -1082425051
            -1381287509 -3211110 800746107 185270296</internalNodes>
          <leafValues>
            -2.9912549257278442e-001 2.1878667175769806e-001</leafValues></_>
        <_>
          <internalNodes>
            0 -1 46 1754780384 1457504932 504519156 1010106364
            -865431302 -2082504558 -1929334082 -48202884</internalNodes>
          <leafValues>
            -4.8090788722038269e-001 1.2315399944782257e-001</leafValues></_>
        <_>
          <internalNodes>
            0 -1 302 65028087 -691209795 2004940029 1575796573
            -1856970848 -5181959 114610092 -571433010</internalNodes>
          <leafValues>
            -2.7294817566871643e-001 2.4438507854938507e-001</leafValues></_>
        <_>
          <internalNodes>
            0 -1 177 1717792546 1088720325 1651825650 -1877241621
            -680137452 -1577608201 -654770991 -1594426386</internalNodes>
          <leafValues>
            -3.9411851763725281e-001 1.7604935169219971e-001</leafValues></_>
        <_>
          <internalNodes>
            0 -1 240 5439076 1145051864 1414901880 -726883406 -652893852
            -1806417983 -619529240 -1344803393</internalNodes>
          <leafValues>
            -3.0988362431526184e-001 2.2011621296405792e-001</leafValues></_>
        <_>
          <internalNodes>
            0 -1 287 1811881815 1624062278 22455105 1163462253
            1308622700 1214515981 206879948 1145328964</internalNodes>
          <leafValues>
            -3.9828780293464661e-001 1.4255070686340332e-001</leafValues></_>
        <_>
          <internalNodes>
            0 -1 166 -54526100 -1932338738 -1302931726 1479603102
            1088443140 1086376965 -170657819 14021887</internalNodes>
          <leafValues>
            -5.3527808189392090e-001 1.0193707793951035e-001</leafValues></_></weakClassifiers></_>
    <!-- stage 6 -->
    <_>
      <maxWeakCount>24</maxWeakCount>
      <stageThreshold>-1.5608539581298828e+000</stageThreshold>
      <weakClassifiers>
        <_>
          <internalNodes>
            0 -1 34 -8482 -269484049 -765463810 -16908289 -3407921
            -269613087 -540017665 -808454153</internalNodes>
          <leafValues>
            -5.4308509826660156e-001 1.2783019244670868e-001</leafValues></_>
        <_>
          <internalNodes>
            0 -1 151 -536944644 -335577807 -623186149 -270881903
            -67457537 -1084248113 -497120321 -536870913</internalNodes>
          <leafValues>
            -4.4212433695793152e-001 1.9918222725391388e-001</leafValues></_>
        <_>
          <internalNodes>
            0 -1 220 -4499206 -67117656 -114556957 -1682220115
            -1079333026 -1417943121 968605670 152115992</internalNodes>
          <leafValues>
            -3.6669012904167175e-001 2.0817084610462189e-001</leafValues></_>
        <_>
          <internalNodes>
            0 -1 106 -950014170 -947416209 -1293946126 -230686721
            1774279567 1145557274 -170919945 343369703</internalNodes>
          <leafValues>
            -4.7288486361503601e-001 1.6091510653495789e-001</leafValues></_>
        <_>
          <internalNodes>
            0 -1 312 1473511423 -536911873 198082399 96489483
            -1900541208 -1073995786 -825058405 20972098</internalNodes>
          <leafValues>
            -3.0992233753204346e-001 2.2030068933963776e-001</leafValues></_>
        <_>
          <internalNodes>
            0 -1 131 1941938163 -819066448 453785669 536812845 849948671
            -1349810725 1253755 455036953</internalNodes>
          <leafValues>
            -2.5643318891525269e-001 2.5148591399192810e-001</leafValues></_>
        <_>
          <internalNodes>
            0 -1 20 -867384739 1490320932 1347804029 1414548221
            -50286652 -118098020 -42336259 -44171531</internalNodes>
          <leafValues>
            -2.3067493736743927e-001 2.7419933676719666e-001</leafValues></_>
        <_>
          <internalNodes>
            0 -1 300 385918195 -539701043 -548874795 1413544653
            490799008 -641669382 -564789313 -909058638</internalNodes>
          <leafValues>
            -2.7940770983695984e-001 2.0918740332126617e-001</leafValues></_>
        <_>
          <internalNodes>
            0 -1 183 -287086042 -1337761297 -44827182 -211582721
            1947218273 -724162223 -854261772 -1863859289</internalNodes>
          <leafValues>
            -4.2493796348571777e-001 1.6607266664505005e-001</leafValues></_>
        <_>
          <internalNodes>
            0 -1 278 -1876634512 1351911549 272693975 2001788377
            -547114172 -166692206 -620365330 -851055650</internalNodes>
          <leafValues>
            -2.6497897505760193e-001 2.2848342359066010e-001</leafValues></_>
        <_>
          <internalNodes>
            0 -1 134 1846007167 -680403553 1264368909 492639301
            -330835971 -1320754 1660996031 17947223</internalNodes>
          <leafValues>
            -2.5166913866996765e-001 2.3752841353416443e-001</leafValues></_>
        <_>
          <internalNodes>
            0 -1 164 1138732563 -299372625 1847048835 108604157
            1609980999 -1660819175 1370932999 1535105455</internalNodes>
          <leafValues>
            -2.7703356742858887e-001 2.2040970623493195e-001</leafValues></_>
        <_>
          <internalNodes>
            0 -1 58 1626320 -1000818368 307245916 -581378099 -1856447808
            -1805846432 285527294 -720840548</internalNodes>
          <leafValues>
            -3.2335227727890015e-001 1.7890116572380066e-001</leafValues></_>
        <_>
          <internalNodes>
            0 -1 47 -1367669150 1460639699 2130587376 -1787674737
            -2078465314 -2025095032 -548323411 -910590052</internalNodes>
          <leafValues>
            -4.7069954872131348e-001 1.2151733785867691e-001</leafValues></_>
        <_>
          <internalNodes>
            0 -1 64 1079208272 -1001337124 -1000811021 -721661500
            -687596553 -1001579083 1430582753 -570468898</internalNodes>
          <leafValues>
            -3.0761027336120605e-001 1.8171377480030060e-001</leafValues></_>
        <_>
          <internalNodes>
            0 -1 29 1145052284 -732685216 357060761 1548799069 -94839660
            -187647868 1581308924 -552045844</internalNodes>
          <leafValues>
            -2.8563958406448364e-001 2.0797798037528992e-001</leafValues></_>
        <_>
          <internalNodes>
            0 -1 262 1148190703 1299314027 32077703 -940058329
            1849676622 -1907517591 1164770029 1279655783</internalNodes>
          <leafValues>
            -2.4639306962490082e-001 2.3484002053737640e-001</leafValues></_>
        <_>
          <internalNodes>
            0 -1 251 -36596621 -666906430 -536871427 -307797507
            -82593102 -2007429054 -637543697 -1330489318</internalNodes>
          <leafValues>
            -1.7614342272281647e-001 3.3302733302116394e-001</leafValues></_>
        <_>
          <internalNodes>
            0 -1 4 -1372723450 642684759 2097281142 -2062757301
            1945337171 -147593009 -1526324809 -805079019</internalNodes>
          <leafValues>
            -3.4986904263496399e-001 1.7205458879470825e-001</leafValues></_>
        <_>
          <internalNodes>
            0 -1 271 -1576832045 -1802961029 -41485069 -552477185
            -1068454224 -696188993 -432554529 -1613763397</internalNodes>
          <leafValues>
            -1.6022953391075134e-001 3.6293557286262512e-001</leafValues></_>
        <_>
          <internalNodes>
            0 -1 159 -1086714808 -1043265168 -1111132509 -229677900
            2059817550 1796357952 -229884857 321674321</internalNodes>
          <leafValues>
            -3.8787227869033813e-001 1.5317612886428833e-001</leafValues></_>
        <_>
          <internalNodes>
            0 -1 35 -930351290 80519375 -665101834 1945353178
            -1818290172 1467265274 817340985 358822487</internalNodes>
          <leafValues>
            -5.0954753160476685e-001 9.8325386643409729e-002</leafValues></_>
        <_>
          <internalNodes>
            0 -1 226 339750976 1287701828 1481915100 1570025215 326948
            6350037 894500049 -35324946</internalNodes>
          <leafValues>
            -3.2678666710853577e-001 1.6075132787227631e-001</leafValues></_>
        <_>
          <internalNodes>
            0 -1 105 596343643 -289515208 1095877640 1510830201
            -1135162501 -1947514463 100942148 357593108</internalNodes>
          <leafValues>
            -3.6882945895195007e-001 1.4735627174377441e-001</leafValues></_></weakClassifiers></_>
    <!-- stage 7 -->
    <_>
      <maxWeakCount>28</maxWeakCount>
      <stageThreshold>-1.5218548774719238e+000</stageThreshold>
      <weakClassifiers>
        <_>
          <internalNodes>
            0 -1 136 -4467461 -3073 -1 -8389697 -1 -67108865 -4198401
            -4194305</internalNodes>
          <leafValues>
            -3.3758556842803955e-001 4.2620864510536194e-001</leafValues></_>
        <_>
          <internalNodes>
            0 -1 145 -18 -269618202 1922560738 1474166783 -69469361
            -555819417 1594686455 1946156799</internalNodes>
          <leafValues>
            -4.7394406795501709e-001 1.7186948657035828e-001</leafValues></_>
        <_>
          <internalNodes>
            0 -1 124 -803020810 -545848871 -562102544 2109702013
            1119525622 -525890926 -1921713179 -865009667</internalNodes>
          <leafValues>
            -3.8988775014877319e-001 1.5531669557094574e-001</leafValues></_>
        <_>
          <internalNodes>
            0 -1 22 -17050113 1941643519 362495899 2066549297
            -1092904278 -104920953 101957627 168495626</internalNodes>
          <leafValues>
            -2.0711714029312134e-001 2.9723542928695679e-001</leafValues></_>
        <_>
          <internalNodes>
            0 -1 280 67132116 1146639956 402955517 1366858749 -536543372
            -145750928 -553583688 -1082918437</internalNodes>
          <leafValues>
            -3.1860587000846863e-001 1.6907323896884918e-001</leafValues></_>
        <_>
          <internalNodes>
            0 -1 303 530316799 -541196362 1230789985 217055816 468760238
            -1226296894 1807232922 516</internalNodes>
          <leafValues>
            -3.8638734817504883e-001 1.6643564403057098e-001</leafValues></_>
        <_>
          <internalNodes>
            0 -1 221 925585626 -39586840 2068492018 -1705525299
            -1081410434 -55666451 1226501762 1225841576</internalNodes>
          <leafValues>
            -3.1875416636466980e-001 1.8861541152000427e-001</leafValues></_>
        <_>
          <internalNodes>
            0 -1 18 2005637066 -703004899 -1312724178 627401147
            -1285124649 -17100451 -1338694849 -821302501</internalNodes>
          <leafValues>
            -3.8508251309394836e-001 1.4756573736667633e-001</leafValues></_>
        <_>
          <internalNodes>
            0 -1 186 -1616162689 -271611652 641465083 -836855371
            -73212408 -366235201 -1967616001 -834792916</internalNodes>
          <leafValues>
            -2.3401851952075958e-001 2.3464708030223846e-001</leafValues></_>
        <_>
          <internalNodes>
            0 -1 9 782696202 -1882523909 -288104973 9534583 -880805263
            -118425161 -955034341 1158894931</internalNodes>
          <leafValues>
            -3.8781428337097168e-001 1.3577494025230408e-001</leafValues></_>
        <_>
          <internalNodes>
            0 -1 284 -172280845 -7926904 1058476023 -547416027
            -1820118085 -1949457712 -1658628693 7274509</internalNodes>
          <leafValues>
            -2.4544823169708252e-001 2.3295716941356659e-001</leafValues></_>
        <_>
          <internalNodes>
            0 -1 24 229270011 -270551051 -187106593 2058828113
            -1819407905 -354518223 -1181814155 205803540</internalNodes>
          <leafValues>
            -3.8239714503288269e-001 1.4327211678028107e-001</leafValues></_>
        <_>
          <internalNodes>
            0 -1 66 725906768 -1002384028 -1287867632 -262365220
            1410628465 -727649403 1091892212 -1922745510</internalNodes>
          <leafValues>
            -3.9676687121391296e-001 1.1455389112234116e-001</leafValues></_>
        <_>
          <internalNodes>
            0 -1 175 1077940304 -996892584 867195641 1593900671
            -212298544 -1739976336 1090839800 -654265175</internalNodes>
          <leafValues>
            -2.7580681443214417e-001 1.8244400620460510e-001</leafValues></_>
        <_>
          <internalNodes>
            0 -1 130 -823136474 1213392192 -231310672 -184887553
            1751009536 1075861764 -249464331 1681996482</internalNodes>
          <leafValues>
            -4.9477493762969971e-001 1.1208556592464447e-001</leafValues></_>
        <_>
          <internalNodes>
            0 -1 310 -1679376673 -2132454 349567483 261626903
            -1881634132 -1610735477 207403916 192939555</internalNodes>
          <leafValues>
            -3.0153563618659973e-001 1.6575254499912262e-001</leafValues></_>
        <_>
          <internalNodes>
            0 -1 125 522407947 1866552386 1595077251 1410625837
            426130240 1998425092 90454025 1463835997</internalNodes>
          <leafValues>
            -3.4310644865036011e-001 1.5643239021301270e-001</leafValues></_>
        <_>
          <internalNodes>
            0 -1 237 493348630 140251647 1791038040 16226811 270841348
            -1267693372 -252204044 -1918792725</internalNodes>
          <leafValues>
            -3.4976184368133545e-001 1.4693792164325714e-001</leafValues></_>
        <_>
          <internalNodes>
            0 -1 88 -1145062661 -1342402296 695028703 1328486689
            868423867 -1085925351 574630450 36332128</internalNodes>
          <leafValues>
            -3.2094547152519226e-001 1.5138891339302063e-001</leafValues></_>
        <_>
          <internalNodes>
            0 -1 275 -1922430766 -492651857 1145073828 606096354
            -1113284398 -1528246032 355856887 -1878463238</internalNodes>
          <leafValues>
            -2.2384068369865417e-001 2.1915890276432037e-001</leafValues></_>
        <_>
          <internalNodes>
            0 -1 28 -1623228700 -553217196 2086559368 -617646131
            -930185107 -535641705 -928605297 -1913439895</internalNodes>
          <leafValues>
            -4.0177366137504578e-001 1.1813115328550339e-001</leafValues></_>
        <_>
          <internalNodes>
            0 -1 263 -183666829 -624435921 257835869 1318007661
            -1927653715 -102187843 319032143 67125321</internalNodes>
          <leafValues>
            -2.7544206380844116e-001 1.8013334274291992e-001</leafValues></_>
        <_>
          <internalNodes>
            0 -1 167 -1917094383 -856225262 383534091 2136801319
            399909631 733619298 102388083 1362038849</internalNodes>
          <leafValues>
            -2.6095870137214661e-001 1.8854801356792450e-001</leafValues></_>
        <_>
          <internalNodes>
            0 -1 267 129972145 854752699 -1650468111 -425801971
            -1631744683 -913977643 -973980140 -1729049456</internalNodes>
          <leafValues>
            -2.9618945717811584e-001 1.6835711896419525e-001</leafValues></_>
        <_>
          <internalNodes>
            0 -1 301 -1948279425 -69762357 1967769491 62598103 66071003
            -1127542600 994911787 178987018</internalNodes>
          <leafValues>
            -2.6086434721946716e-001 2.0157784223556519e-001</leafValues></_>
        <_>
          <internalNodes>
            0 -1 245 -1440528158 -2134187222 -1179233589 1228456880
            -1225912220 -2145064790 -1796147277 -2001022488</internalNodes>
          <leafValues>
            -2.8819933533668518e-001 1.7000859975814819e-001</leafValues></_>
        <_>
          <internalNodes>
            0 -1 56 999553787 -1723930571 756121609 490935261
            -1847119942 -1411770362 727386395 425658376</internalNodes>
          <leafValues>
            -2.4932463467121124e-001 2.0163251459598541e-001</leafValues></_>
        <_>
          <internalNodes>
            0 -1 83 1157013722 -1001119080 1343382239 2086063581
            -543103648 -1001062904 -66519299 -1250275644</internalNodes>
          <leafValues>
            -3.2179725170135498e-001 1.6006194055080414e-001</leafValues></_></weakClassifiers></_>
    <!-- stage 8 -->
    <_>
      <maxWeakCount>31</maxWeakCount>
      <stageThreshold>-1.4533232450485229e+000</stageThreshold>
      <weakClassifiers>
        <_>
          <internalNodes>
            0 -1 77 -140256566 -741354561 2090726399 -36186465
            -1209609761 2109184979 -437794945 -611321733</internalNodes>
          <leafValues>
            -5.3728675842285156e-001 3.1183341518044472e-002</leafValues></_>
        <_>
          <internalNodes>
            0 -1 223 -1690611461 -3441424 -791152687 -14816939 -5580066
            -1183383705 -1086786561 -71566851</internalNodes>
          <leafValues>
            -1.9662274420261383e-001 3.8082578778266907e-001</leafValues></_>
        <_>
          <internalNodes>
            0 -1 40 2145612014 -269502866 1996095230 -29411329
            -211345458 2146406794 2005100383 1157579023</internalNodes>
          <leafValues>
            -4.3129941821098328e-001 1.5002277493476868e-001</leafValues></_>
        <_>
          <internalNodes>
            0 -1 253 -2111794640 -790576912 -640037379 -134429195
            -1841257552 -1594880000 -1977829135 -992948024</internalNodes>
          <leafValues>
            -2.8182062506675720e-001 2.1871712803840637e-001</leafValues></_>
        <_>
          <internalNodes>
            0 -1 23 -1128420641 -1145196897 -1038121985 721129886
            -369411390 -1171642368 -1974784229 704651280</internalNodes>
          <leafValues>
            -3.1361284852027893e-001 1.8928834795951843e-001</leafValues></_>
        <_>
          <internalNodes>
            0 -1 309 1326511987 -692279563 1057256349 357580761
            -1621047568 -91161395 -28250373 -822018049</internalNodes>
          <leafValues>
            -2.0428317785263062e-001 2.6409423351287842e-001</leafValues></_>
        <_>
          <internalNodes>
            0 -1 176 -1678030388 -552641800 591133360 -949113163
            1112468228 -1155816229 683342885 -663754183</internalNodes>
          <leafValues>
            -4.6971219778060913e-001 9.0952761471271515e-002</leafValues></_>
        <_>
          <internalNodes>
            0 -1 302 1079050067 -674825219 1411677989 1373695865
            403750896 -289865732 -816750595 -607592453</internalNodes>
          <leafValues>
            -2.0258134603500366e-001 2.4547150731086731e-001</leafValues></_>
        <_>
          <internalNodes>
            0 -1 14 1308873887 2003684279 1197698903 467345591
            -341055298 -340054786 186260411 52367435</internalNodes>
          <leafValues>
            -1.9718573987483978e-001 2.4361808598041534e-001</leafValues></_>
        <_>
          <internalNodes>
            0 -1 71 1839193919 1822289911 2010374140 -458720244
            1509335923 -1469047631 932118368 -462368190</internalNodes>
          <leafValues>
            -3.2418733835220337e-001 1.5080641210079193e-001</leafValues></_>
        <_>
          <internalNodes>
            0 -1 148 -532953565 -975187126 1448441377 509606911
            -1088489910 -1698471357 857830247 1570100223</internalNodes>
          <leafValues>
            -2.3353476822376251e-001 2.0637893676757813e-001</leafValues></_>
        <_>
          <internalNodes>
            0 -1 63 336917204 -795707948 352352665 -717169423 -402070572
            -59207540 1426115068 -580920887</internalNodes>
          <leafValues>
            -1.9445839524269104e-001 2.4715596437454224e-001</leafValues></_>
        <_>
          <internalNodes>
            0 -1 3 -291107638 -327098976 -6029381 -1403761445 -77629478
            -1139760374 1229112752 -1006082821</internalNodes>
          <leafValues>
            -3.6410707235336304e-001 1.2940642237663269e-001</leafValues></_>
        <_>
          <internalNodes>
            0 -1 295 -3155203 518988795 866100107 65882864 -610297688
            -1417011194 1382689194 174784554</internalNodes>
          <leafValues>
            -2.4148829281330109e-001 1.9756458699703217e-001</leafValues></_>
        <_>
          <internalNodes>
            0 -1 120 2066716738 1606352634 2044444592 294377851
            -103077568 -1112661094 1049853015 588243803</internalNodes>
          <leafValues>
            -5.1666736602783203e-001 1.0197663307189941e-001</leafValues></_>
        <_>
          <internalNodes>
            0 -1 272 929759573 -1080644780 1470301141 -763317905
            910734131 -1124934996 1050150178 7359328</internalNodes>
          <leafValues>
            -4.3217712640762329e-001 1.0943817347288132e-001</leafValues></_>
        <_>
          <internalNodes>
            0 -1 112 -1436942091 -491124736 -270139401 393583336
            -275217232 -899546968 -151901302 3276800</internalNodes>
          <leafValues>
            -3.3142918348312378e-001 1.4386256039142609e-001</leafValues></_>
        <_>
          <internalNodes>
            0 -1 259 294081403 775920301 1277448271 156770339
            -1950434756 -1081123077 1394523071 520813563</internalNodes>
          <leafValues>
            -2.3221284151077271e-001 2.1585063636302948e-001</leafValues></_>
        <_>
          <internalNodes>
            0 -1 129 -1968565568 -860858192 987289028 -594408580
            -1971214544 2289792 815198680 -78957876</internalNodes>
          <leafValues>
            -3.0939504504203796e-001 1.6467975080013275e-001</leafValues></_>
        <_>
          <internalNodes>
            0 -1 150 1245934036 -929031904 -652944491 475322854
            304216176 -1663007502 -766227971 -671629570</internalNodes>
          <leafValues>
            -2.5579705834388733e-001 1.8540726602077484e-001</leafValues></_>
        <_>
          <internalNodes>
            0 -1 297 1601174143 746583919 235277156 1715330413
            -735840544 1305309228 474858954 1078449686</internalNodes>
          <leafValues>
            -2.3610576987266541e-001 2.0974346995353699e-001</leafValues></_>
        <_>
          <internalNodes>
            0 -1 255 -797558000 -857950770 -898319407 -50575449
            296016080 -1870616184 1361165301 -573223522</internalNodes>
          <leafValues>
            -2.5774085521697998e-001 1.9188050925731659e-001</leafValues></_>
        <_>
          <internalNodes>
            0 -1 133 74432335 1297002344 121820996 1153228656 1092484692
            90366662 1276913477 67398756</internalNodes>
          <leafValues>
            -4.9002203345298767e-001 9.5541477203369141e-002</leafValues></_>
        <_>
          <internalNodes>
            0 -1 156 -1749197569 -275573903 1893003843 2062253286
            -1646374682 1833916003 1178650184 -1977988395</internalNodes>
          <leafValues>
            -2.6393643021583557e-001 1.7371630668640137e-001</leafValues></_>
        <_>
          <internalNodes>
            0 -1 203 1185558544 -960450450 -2063502340 -640624720
            -787372735 -740048152 -1797812032 -1695083268</internalNodes>
          <leafValues>
            -3.0021604895591736e-001 1.5593172609806061e-001</leafValues></_>
        <_>
          <internalNodes>
            0 -1 289 -778850176 -799738204 1598088663 1348337659
            103141360 -1677140928 1058335647 -73473569</internalNodes>
          <leafValues>
            -1.5837556123733521e-001 2.9666534066200256e-001</leafValues></_>
        <_>
          <internalNodes>
            0 -1 308 265294675 -137367309 1168181818 432094371 218121154
            146166080 977736386 218767377</internalNodes>
          <leafValues>
            -3.3867585659027100e-001 1.3875572383403778e-001</leafValues></_>
        <_>
          <internalNodes>
            0 -1 49 1536676535 2092631244 977559071 89479243 -1050965317
            1350310092 1477082953 1463899136</internalNodes>
          <leafValues>
            -2.3979701101779938e-001 1.8898417055606842e-001</leafValues></_>
        <_>
          <internalNodes>
            0 -1 152 983521794 461822077 -1580413978 2036030143
            876026448 946643710 2026066467 190013195</internalNodes>
          <leafValues>
            -4.5121303200721741e-001 1.0575579106807709e-001</leafValues></_>
        <_>
          <internalNodes>
            0 -1 127 -1147431973 -7888376 -33644547 -237914384
            -152163936 -1020168156 -162336006 -67145592</internalNodes>
          <leafValues>
            -1.3650158047676086e-001 3.7167996168136597e-001</leafValues></_>
        <_>
          <internalNodes>
            0 -1 0 406761903 -472372782 1503264127 1221523419 -933577729
            -1161244984 -457704163 -923227604</internalNodes>
          <leafValues>
            -2.5072559714317322e-001 1.9783696532249451e-001</leafValues></_></weakClassifiers></_>
    <!-- stage 9 -->
    <_>
      <maxWeakCount>35</maxWeakCount>
      <stageThreshold>-1.4005914926528931e+000</stageThreshold>
      <weakClassifiers>
        <_>
          <internalNodes>
            0 -1 144 -10485761 -741123592 1584857077 -2120707
            -1578699778 -1475637021 -12652561 -1923844099</internalNodes>
          <leafValues>
            -4.0695783495903015e-001 1.1147201806306839e-001</leafValues></_>
        <_>
          <internalNodes>
            0 -1 161 -672677906 -179321969 -222826270 362535901
            -649217209 -854570545 2009595895 1924529151</internalNodes>
          <leafValues>
            -4.5111703872680664e-001 1.1541662365198135e-001</leafValues></_>
        <_>
          <internalNodes>
            0 -1 311 -573507593 -673844257 1431362941 1469174269
            -608108560 -69864728 -599719937 -538181637</internalNodes>
          <leafValues>
            -1.4409087598323822e-001 4.0529376268386841e-001</leafValues></_>
        <_>
          <internalNodes>
            0 -1 8 2080562174 -544784509 1179960845 1230881667
            -992593961 1448329791 -286372353 -310646885</internalNodes>
          <leafValues>
            -2.7718615531921387e-001 2.1402719616889954e-001</leafValues></_>
        <_>
          <internalNodes>
            0 -1 290 -607143017 -672156952 262419985 735830017 -23354726
            162205836 1240316827 134938762</internalNodes>
          <leafValues>
            -3.0091381072998047e-001 1.5175116062164307e-001</leafValues></_>
        <_>
          <internalNodes>
            0 -1 256 -1120150533 -537953648 23559137 -2036765631
            -1078208469 -1580582198 415224771 1067136</internalNodes>
          <leafValues>
            -2.5230044126510620e-001 2.1169030666351318e-001</leafValues></_>
        <_>
          <internalNodes>
            0 -1 142 465247483 -269512460 913179370 1582634492
            -1082459270 -69500094 1595037038 1263812767</internalNodes>
          <leafValues>
            -2.6485219597816467e-001 1.7598992586135864e-001</leafValues></_>
        <_>
          <internalNodes>
            0 -1 299 496057331 -1610645253 194272151 164188353 252719779
            -1951423813 463799067 33554466</internalNodes>
          <leafValues>
            -3.0502629280090332e-001 1.4747941493988037e-001</leafValues></_>
        <_>
          <internalNodes>
            0 -1 22 -150994945 -1073806475 1369153471 993626299
            -335570262 -1614993236 786119466 722665994</internalNodes>
          <leafValues>
            -2.2800233960151672e-001 1.8788594007492065e-001</leafValues></_>
        <_>
          <internalNodes>
            0 -1 39 2141674003 -307267901 -1838086954 -1094986483
            1528777116 -64766191 -1101576801 -866823993</internalNodes>
          <leafValues>
            -2.2363422811031342e-001 1.9214117527008057e-001</leafValues></_>
        <_>
          <internalNodes>
            0 -1 294 -802467248 -737366716 -268288129 1359229258
            -228395616 -934787352 -822034789 -1625642273</internalNodes>
          <leafValues>
            -1.8408198654651642e-001 2.3379340767860413e-001</leafValues></_>
        <_>
          <internalNodes>
            0 -1 62 1055570911 -1492508152 1033574799 862993465
            230043314 -1410858968 858327818 0</internalNodes>
          <leafValues>
            -4.1392377018928528e-001 1.0070793330669403e-001</leafValues></_>
        <_>
          <internalNodes>
            0 -1 234 -1969513510 -792175416 -589202467 -629157683
            -115619008 -262106847 -773983239 -1744129848</internalNodes>
          <leafValues>
            -2.0333245396614075e-001 2.0754265785217285e-001</leafValues></_>
        <_>
          <internalNodes>
            0 -1 197 -399845050 1354797620 1587295870 -1655289020
            68455748 -803135352 -606736476 -1795948873</internalNodes>
          <leafValues>
            -3.2624068856239319e-001 1.2756747007369995e-001</leafValues></_>
        <_>
          <internalNodes>
            0 -1 313 1207430927 -896115157 1302328295 80768772
            1323211683 1807525984 1855446857 1149304610</internalNodes>
          <leafValues>
            -2.8441336750984192e-001 1.4864434301853180e-001</leafValues></_>
        <_>
          <internalNodes>
            0 -1 117 -1065482096 1620848752 -149494529 -578879788
            -1188376336 -1862749980 -57753669 -777900376</internalNodes>
          <leafValues>
            -2.2854362428188324e-001 1.8960912525653839e-001</leafValues></_>
        <_>
          <internalNodes>
            0 -1 149 67529024 1146909780 20995924 1423309821 1073779161
            -2052533572 1560566681 -1612997223</internalNodes>
          <leafValues>
            -2.5331199169158936e-001 1.5248513221740723e-001</leafValues></_>
        <_>
          <internalNodes>
            0 -1 258 536840955 966477261 -630743425 572654795
            -1881429430 -1434858865 1041267274 49746</internalNodes>
          <leafValues>
            -2.5220072269439697e-001 1.6744999587535858e-001</leafValues></_>
        <_>
          <internalNodes>
            0 -1 112 -83911973 -730310040 -33554945 -8930693 -16995143
            -381673248 -21103877 -1161870734</internalNodes>
          <leafValues>
            -1.2873928248882294e-001 3.3058309555053711e-001</leafValues></_>
        <_>
          <internalNodes>
            0 -1 21 772445838 72259472 882264134 1056899852 1274983002
            -71728932 -550211109 1173419003</internalNodes>
          <leafValues>
            -4.4563427567481995e-001 9.8116308450698853e-002</leafValues></_>
        <_>
          <internalNodes>
            0 -1 271 1426242386 -526847331 -1316688943 -1729838127
            -1073693456 -722339845 1414577140 -1125107299</internalNodes>
          <leafValues>
            -2.6145467162132263e-001 1.5544974803924561e-001</leafValues></_>
        <_>
          <internalNodes>
            0 -1 247 172476502 1081012350 -1969992650 2376951 1364655172
            -253472884 -588936986 -1731621174</internalNodes>
          <leafValues>
            -2.8397995233535767e-001 1.4331309497356415e-001</leafValues></_>
        <_>
          <internalNodes>
            0 -1 69 1442838303 1863766795 624975211 1302109472
            1317388207 707563494 69483813 1078302981</internalNodes>
          <leafValues>
            -3.1143489480018616e-001 1.2549881637096405e-001</leafValues></_>
        <_>
          <internalNodes>
            0 -1 261 1375681119 2141053522 64618703 558844323 179655516
            805116592 522849467 678654</internalNodes>
          <leafValues>
            -2.3940503597259521e-001 1.6680301725864410e-001</leafValues></_>
        <_>
          <internalNodes>
            0 -1 127 -1718889997 -348245344 -159417666 -69224560
            -1476454208 -1600839648 318419985 -143429582</internalNodes>
          <leafValues>
            -1.7271344363689423e-001 2.3092807829380035e-001</leafValues></_>
        <_>
          <internalNodes>
            0 -1 137 -940607954 1039836380 -805446415 -1559112585
            -41180299 -325222213 -977594957 -942478857</internalNodes>
          <leafValues>
            -2.3390696942806244e-001 1.7398157715797424e-001</leafValues></_>
        <_>
          <internalNodes>
            0 -1 200 1053020 -20056884 339744349 38817998 -297296647
            -279908216 21076185 16817160</internalNodes>
          <leafValues>
            -3.1292784214019775e-001 1.3722458481788635e-001</leafValues></_>
        <_>
          <internalNodes>
            0 -1 217 1858808324 -2008645558 -1149046737 111706359
            -7127695 -848176088 1058476544 4232208</internalNodes>
          <leafValues>
            -4.7919723391532898e-001 8.6146965622901917e-002</leafValues></_>
        <_>
          <internalNodes>
            0 -1 180 -387769264 -833801073 452850162 -177166114
            1660936256 1861145292 -982266115 -2000430913</internalNodes>
          <leafValues>
            -2.7379217743873596e-001 1.4206485450267792e-001</leafValues></_>
        <_>
          <internalNodes>
            0 -1 19 1076895965 -890739660 1748620927 -586313374
            -1922449328 -64198520 939644653 -560080166</internalNodes>
          <leafValues>
            -1.9117346405982971e-001 2.1161833405494690e-001</leafValues></_>
        <_>
          <internalNodes>
            0 -1 312 -537199121 -1665308173 -780313189 123790296
            -1639290173 -1611251862 -749480197 134434370</internalNodes>
          <leafValues>
            -2.0025722682476044e-001 1.9876602292060852e-001</leafValues></_>
        <_>
          <internalNodes>
            0 -1 265 1837611601 -560214627 -855316643 160443901
            -282069505 -854223112 388019133 -1621107234</internalNodes>
          <leafValues>
            -1.4489118754863739e-001 2.8436672687530518e-001</leafValues></_>
        <_>
          <internalNodes>
            0 -1 65 977960763 -276890150 836428534 -558203988 804730672
            -1182232171 1249340948 -1475971526</internalNodes>
          <leafValues>
            -2.3267394304275513e-001 1.7947934567928314e-001</leafValues></_>
        <_>
          <internalNodes>
            0 -1 86 432959731 -144956252 -2117810991 -715262572
            -1916565295 -241110316 -788409093 -615024456</internalNodes>
          <leafValues>
            -1.4873649179935455e-001 2.7273705601692200e-001</leafValues></_>
        <_>
          <internalNodes>
            0 -1 42 1343079042 353719195 -395396880 -1845579067
            -804159351 77627826 -414907331 -636223941</internalNodes>
          <leafValues>
            -4.4309517741203308e-001 9.2446796596050262e-002</leafValues></_></weakClassifiers></_>
    <!-- stage 10 -->
    <_>
      <maxWeakCount>38</maxWeakCount>
      <stageThreshold>-1.3305461406707764e+000</stageThreshold>
      <weakClassifiers>
        <_>
          <internalNodes>
            0 -1 206 -1080828420 -548540372 -379850401 -1619567511
            -7685202 -1161113534 -1937573125 -11613539</internalNodes>
          <leafValues>
            -3.9957517385482788e-001 5.1288865506649017e-002</leafValues></_>
        <_>
          <internalNodes>
            0 -1 7 -559178518 1399846319 837961343 -2092621381
            -783837445 -90004747 1372023711 -2025104017</internalNodes>
          <leafValues>
            -3.7870123982429504e-001 1.2429786473512650e-001</leafValues></_>
        <_>
          <internalNodes>
            0 -1 37 1608474623 -70566261 558447405 1561542810
            -1105551698 -1161289216 305630762 0</internalNodes>
          <leafValues>
            -3.1873279809951782e-001 1.5565784275531769e-001</leafValues></_>
        <_>
          <internalNodes>
            0 -1 157 -48628997 -405801748 -499129750 1626010540
            -1147274682 -344917505 -1509964432 1114366002</internalNodes>
          <leafValues>
            -2.5809156894683838e-001 1.9287489354610443e-001</leafValues></_>
        <_>
          <internalNodes>
            0 -1 301 526365683 -185747 521093015 265296541 192449471
            -1363209287 -15779925 167772674</internalNodes>
          <leafValues>
            -2.9652029275894165e-001 1.5681625902652740e-001</leafValues></_>
        <_>
          <internalNodes>
            0 -1 169 1707605839 1959067908 16008533 1960072516
            1826750233 1073220 1097187149 1163683652</internalNodes>
          <leafValues>
            -3.0558934807777405e-001 1.4276657998561859e-001</leafValues></_>
        <_>
          <internalNodes>
            0 -1 222 -1086344453 -1980898337 -1331255072 252438229
            -996426933 -935146516 383745971 -1878984624</internalNodes>
          <leafValues>
            -2.7236977219581604e-001 1.5488570928573608e-001</leafValues></_>
        <_>
          <internalNodes>
            0 -1 276 1356536031 -38063727 491419003 19406885 -1620907297
            -1109765714 -1626678289 168478171</internalNodes>
          <leafValues>
            -2.3325073719024658e-001 1.8549729883670807e-001</leafValues></_>
        <_>
          <internalNodes>
            0 -1 249 71326736 -731893403 1402005367 1433672146
            1917910644 -1675576272 1838218232 -11306050</internalNodes>
          <leafValues>
            -2.0189104974269867e-001 2.1461433172225952e-001</leafValues></_>
        <_>
          <internalNodes>
            0 -1 233 -524039166 -2134596393 -249925136 -1133586435
            -1976186672 -1766618472 -895174671 -1076692226</internalNodes>
          <leafValues>
            -2.5418412685394287e-001 1.7447510361671448e-001</leafValues></_>
        <_>
          <internalNodes>
            0 -1 174 2074869720 -158604674 445368505 -617633095
            1789636421 -1475702038 708570755 -545801614</internalNodes>
          <leafValues>
            -2.6311284303665161e-001 1.6479659080505371e-001</leafValues></_>
        <_>
          <internalNodes>
            0 -1 147 -1145368040 -829546496 1831510624 1879511129
            -825567550 588329120 385537346 -677195584</internalNodes>
          <leafValues>
            -2.8374251723289490e-001 1.5266564488410950e-001</leafValues></_>
        <_>
          <internalNodes>
            0 -1 202 -732390832 -125529878 -2129637153 -782237224
            -710881103 -1687564134 -1722172195 -654252818</internalNodes>
          <leafValues>
            -1.6461278498172760e-001 2.4956725537776947e-001</leafValues></_>
        <_>
          <internalNodes>
            0 -1 305 188749173 -1149371562 -110497183 2095896310
            -1620248327 -24059878 -832256791 -331301120</internalNodes>
          <leafValues>
            -3.2041937112808228e-001 1.3431191444396973e-001</leafValues></_>
        <_>
          <internalNodes>
            0 -1 310 1308065723 1071582623 -2021163817 128912850
            267197117 -824241600 -480740561 197790347</internalNodes>
          <leafValues>
            -2.8098642826080322e-001 1.3285869359970093e-001</leafValues></_>
        <_>
          <internalNodes>
            0 -1 87 -669555418 317856223 -1365559568 -193039746
            704848837 -2147475056 -1591216143 875798771</internalNodes>
          <leafValues>
            -5.0207662582397461e-001 9.0181052684783936e-002</leafValues></_>
        <_>
          <internalNodes>
            0 -1 63 -669976300 -797902764 1167676248 1431624413
            -1403480144 -1037520756 1430584057 -34734628</internalNodes>
          <leafValues>
            -2.0785988867282867e-001 2.0501980185508728e-001</leafValues></_>
        <_>
          <internalNodes>
            0 -1 5 -1371602358 772847444 -1233519620 -1968166052
            -67676311 -144195247 -582944261 -1050710829</internalNodes>
          <leafValues>
            -3.5872560739517212e-001 1.0383949428796768e-001</leafValues></_>
        <_>
          <internalNodes>
            0 -1 22 719261947 935274043 26673947 637615245 176106091
            -1288755136 543763459 131072</internalNodes>
          <leafValues>
            -3.7994366884231567e-001 1.0549794137477875e-001</leafValues></_>
        <_>
          <internalNodes>
            0 -1 128 529162287 -821162472 374081613 1439691348
            1418075467 -808695422 5701643 1363497293</internalNodes>
          <leafValues>
            -2.6280835270881653e-001 1.4783196151256561e-001</leafValues></_>
        <_>
          <internalNodes>
            0 -1 196 -1898774764 147589016 -1928038443 1549585753
            348192757 -259981659 -82583811 -1610659089</internalNodes>
          <leafValues>
            -1.8237127363681793e-001 2.2836039960384369e-001</leafValues></_>
        <_>
          <internalNodes>
            0 -1 228 1467479911 1207956751 625055597 1158767964
            1724748623 1282268678 1724756061 1699034956</internalNodes>
          <leafValues>
            -2.3785041272640228e-001 1.6608342528343201e-001</leafValues></_>
        <_>
          <internalNodes>
            0 -1 44 -435688786 1164074061 1054036706 507506391 859853774
            -1901051375 -1861926021 1666482399</internalNodes>
          <leafValues>
            -3.7415242195129395e-001 1.0648464411497116e-001</leafValues></_>
        <_>
          <internalNodes>
            0 -1 229 -591519375 -773322510 -713034755 797377656
            -844696655 -319282792 -275790370 -795328432</internalNodes>
          <leafValues>
            -1.8083442747592926e-001 2.2330792248249054e-001</leafValues></_>
        <_>
          <internalNodes>
            0 -1 225 743996274 412894256 -142477711 488210429
            -1405047128 -1610008992 152230903 -1084244293</internalNodes>
          <leafValues>
            -1.6512595117092133e-001 2.3975723981857300e-001</leafValues></_>
        <_>
          <internalNodes>
            0 -1 50 230570418 -269042338 382758310 -824707878 -683717309
            -1038815 -1051573199 -1067158528</internalNodes>
          <leafValues>
            -2.7603375911712646e-001 1.4464849233627319e-001</leafValues></_>
        <_>
          <internalNodes>
            0 -1 118 -891568557 -789460485 1966451325 -64422340
            -238356032 -138429218 -117309955 -1207199509</internalNodes>
          <leafValues>
            -1.4466917514801025e-001 2.7072972059249878e-001</leafValues></_>
        <_>
          <internalNodes>
            0 -1 216 1775238991 1407450527 1178263391 1375666026
            1458946027 144891680 67107738 -471341426</internalNodes>
          <leafValues>
            -1.2259583175182343e-001 3.1080001592636108e-001</leafValues></_>
        <_>
          <internalNodes>
            0 -1 205 1018057835 -833693464 1875114212 -833211736
            -1132712 -578111320 192919718 1245276477</internalNodes>
          <leafValues>
            -2.7505606412887573e-001 1.4087693393230438e-001</leafValues></_>
        <_>
          <internalNodes>
            0 -1 252 -736700073 -4243655 1280537989 341696445 2060549883
            -281453060 1142320539 1262601167</internalNodes>
          <leafValues>
            -1.6867750883102417e-001 2.3531797528266907e-001</leafValues></_>
        <_>
          <internalNodes>
            0 -1 58 340570608 -1064252224 1494308308 1574182873
            588300432 -2000620400 -1342132068 -715302712</internalNodes>
          <leafValues>
            -2.4469947814941406e-001 1.6279458999633789e-001</leafValues></_>
        <_>
          <internalNodes>
            0 -1 10 -932463089 309393527 -168740360 -146419074
            -1596742759 1907614841 -1570973068 -1353745825</internalNodes>
          <leafValues>
            -2.1956060826778412e-001 1.7722269892692566e-001</leafValues></_>
        <_>
          <internalNodes>
            0 -1 111 8680784 1678524882 -2075893359 -724271266
            1358984020 -1062186508 1610620240 -1794056502</internalNodes>
          <leafValues>
            -3.4399408102035522e-001 1.1343068629503250e-001</leafValues></_>
        <_>
          <internalNodes>
            0 -1 282 253751135 620269670 1667856255 1190985568
            -320473179 -559619388 746371992 -500699286</internalNodes>
          <leafValues>
            -1.6762614250183105e-001 2.3437160253524780e-001</leafValues></_>
        <_>
          <internalNodes>
            0 -1 79 -152197641 -207924968 -350655563 -571122851
            -67240990 -71819600 1966852831 -10507330</internalNodes>
          <leafValues>
            -9.1301023960113525e-002 4.1166007518768311e-001</leafValues></_>
        <_>
          <internalNodes>
            0 -1 307 1372207005 -11993089 1870265209 247482605 321948398
            -2091855098 -802439229 14432</internalNodes>
          <leafValues>
            -2.8515300154685974e-001 1.3821084797382355e-001</leafValues></_>
        <_>
          <internalNodes>
            0 -1 244 671092992 -428775160 89690276 1342192857 172531010
            -1871688454 218206676 139501036</internalNodes>
          <leafValues>
            -4.3390321731567383e-001 7.9970724880695343e-002</leafValues></_>
        <_>
          <internalNodes>
            0 -1 241 691489623 1304750598 184744799 1082158145
            1646590528 542941985 743833488 1111555958</internalNodes>
          <leafValues>
            -3.1669044494628906e-001 1.1341490596532822e-001</leafValues></_></weakClassifiers></_>
    <!-- stage 11 -->
    <_>
      <maxWeakCount>43</maxWeakCount>
      <stageThreshold>-1.3707855939865112e+000</stageThreshold>
      <weakClassifiers>
        <_>
          <internalNodes>
            0 -1 172 -142671876 1609802301 -1414339971 -1164989647
            -1977981953 -928874341 -532782787 -67375169</internalNodes>
          <leafValues>
            -5.2438265085220337e-001 -4.2303908616304398e-002</leafValues></_>
        <_>
          <internalNodes>
            0 -1 32 -1615331621 -1481680519 -166232500 779575493
            1741124377 -551485117 -73437953 6575207</internalNodes>
          <leafValues>
            -3.5461017489433289e-001 1.1696407198905945e-001</leafValues></_>
        <_>
          <internalNodes>
            0 -1 291 1409868144 1414590920 218165056 1432147152
            -1325366624 -2079262512 1527054253 -1660101890</internalNodes>
          <leafValues>
            -2.1133098006248474e-001 2.0717033743858337e-001</leafValues></_>
        <_>
          <internalNodes>
            0 -1 224 -1625596677 -1794421768 -810649747 1366245861
            -1195716358 -1409375038 612430069 -913637927</internalNodes>
          <leafValues>
            -1.8958963453769684e-001 2.2295232117176056e-001</leafValues></_>
        <_>
          <internalNodes>
            0 -1 279 973016831 1039346398 27212599 47161563 -155210968
            -1343356074 -72413400 168493056</internalNodes>
          <leafValues>
            -3.0119529366493225e-001 1.2888218462467194e-001</leafValues></_>
        <_>
          <internalNodes>
            0 -1 54 1718348514 1181743534 -1300657984 1981632607
            -1505738481 -29290171 1034656433 1146382439</internalNodes>
          <leafValues>
            -4.0061643719673157e-001 1.1477266252040863e-001</leafValues></_>
        <_>
          <internalNodes>
            0 -1 67 586388814 652084251 2132639230 -1623061186 93001327
            -1392623568 -1689583624 -1939588528</internalNodes>
          <leafValues>
            -2.4421696364879608e-001 1.5823510289192200e-001</leafValues></_>
        <_>
          <internalNodes>
            0 -1 82 1154745588 -665058096 286546292 1543524637
            -649790127 -706985920 72669424 -552601191</internalNodes>
          <leafValues>
            -2.3872794210910797e-001 1.5270553529262543e-001</leafValues></_>
        <_>
          <internalNodes>
            0 -1 96 -903099425 -541986091 726464989 1459969399
            -805642245 -54551570 234938207 17857</internalNodes>
          <leafValues>
            -1.9188776612281799e-001 1.9540436565876007e-001</leafValues></_>
        <_>
          <internalNodes>
            0 -1 189 -1164451670 -1861495825 327893218 430672863
            1997520654 -2002612518 429882355 1099297579</internalNodes>
          <leafValues>
            -3.3740124106407166e-001 1.1081551760435104e-001</leafValues></_>
        <_>
          <internalNodes>
            0 -1 232 -2002800304 -803422000 1230106109 -586097440
            -1917022015 -790806480 -879429380 -732556116</internalNodes>
          <leafValues>
            -1.9126479327678680e-001 2.0007702708244324e-001</leafValues></_>
        <_>
          <internalNodes>
            0 -1 68 -201638401 -876967735 2044427647 2098397691
            -1699816785 -340972854 436884107 185798730</internalNodes>
          <leafValues>
            -2.0901709794998169e-001 1.7297121882438660e-001</leafValues></_>
        <_>
          <internalNodes>
            0 -1 309 37781331 -673385281 2135191381 223401296 -285149744
            -558301866 -32395814 -1652492805</internalNodes>
          <leafValues>
            -1.8445150554180145e-001 1.9314227998256683e-001</leafValues></_>
        <_>
          <internalNodes>
            0 -1 99 791402562 787407328 -866569490 1584534388 495843136
            -1342598027 1325523274 1163370579</internalNodes>
          <leafValues>
            -4.1656562685966492e-001 8.8556066155433655e-002</leafValues></_>
        <_>
          <internalNodes>
            0 -1 114 -618979574 1049777855 -1989673821 2036169501
            1480550733 -1430985762 1691377783 -833658853</internalNodes>
          <leafValues>
            -3.5479864478111267e-001 1.0086029022932053e-001</leafValues></_>
        <_>
          <internalNodes>
            0 -1 204 -73562625 -6305554 -536995103 -80998392 -1079072085
            -1097181066 905908488 542856</internalNodes>
          <leafValues>
            -1.9163236021995544e-001 1.9891975820064545e-001</leafValues></_>
        <_>
          <internalNodes>
            0 -1 2 4711027 14593649 455906643 -321094504 -25529367
            -199760219 2132343673 -931885328</internalNodes>
          <leafValues>
            -2.1992158889770508e-001 1.6944679617881775e-001</leafValues></_>
        <_>
          <internalNodes>
            0 -1 88 -1074266113 -128966 934898617 -1679825000
            -1617360965 993988793 710150975 186859546</internalNodes>
          <leafValues>
            -1.9112542271614075e-001 1.9664418697357178e-001</leafValues></_>
        <_>
          <internalNodes>
            0 -1 60 581383013 1809248716 1918655729 1593638008 402912052
            -1112853530 -735456667 -656611792</internalNodes>
          <leafValues>
            -2.5986477732658386e-001 1.3332305848598480e-001</leafValues></_>
        <_>
          <internalNodes>
            0 -1 253 -1239928304 -262139788 -1222718180 -929972116
            843103152 -1544548296 -1688682829 -1741004056</internalNodes>
          <leafValues>
            -2.4337212741374969e-001 1.4673075079917908e-001</leafValues></_>
        <_>
          <internalNodes>
            0 -1 288 -201339913 -116418518 1932035901 101568766
            2137891807 -1952430955 1862743513 35635727</internalNodes>
          <leafValues>
            -1.6145078837871552e-001 2.2467271983623505e-001</leafValues></_>
        <_>
          <internalNodes>
            0 -1 268 61540145 -478689546 -930088527 541094305 263470865
            -33655868 1086340144 -2147418368</internalNodes>
          <leafValues>
            -3.6785703897476196e-001 9.0241052210330963e-002</leafValues></_>
        <_>
          <internalNodes>
            0 -1 311 1145103218 -694492449 1157684860 1349532894
            181467080 -1663679562 -279904257 -1144860997</internalNodes>
          <leafValues>
            -1.7338737845420837e-001 2.0207910239696503e-001</leafValues></_>
        <_>
          <internalNodes>
            0 -1 287 1702330223 1146977902 688221517 1128607557
            1308808565 8471305 659842125 1146937156</internalNodes>
          <leafValues>
            -3.1458413600921631e-001 1.0941830277442932e-001</leafValues></_>
        <_>
          <internalNodes>
            0 -1 112 -363128043 -244475544 -33558529 -637595557
            -201461328 -203742592 -142741057 -8961974</internalNodes>
          <leafValues>
            -1.2695534527301788e-001 2.8814458847045898e-001</leafValues></_>
        <_>
          <internalNodes>
            0 -1 260 1938494584 2053519936 1969392893 1148266292
            514121524 1342193698 -1886730510 -1713761794</internalNodes>
          <leafValues>
            -2.2845000028610229e-001 1.5440931916236877e-001</leafValues></_>
        <_>
          <internalNodes>
            0 -1 108 17693651 -326484996 1396735451 1569057181
            1899481051 -51716243 307558355 -1759511301</internalNodes>
          <leafValues>
            -1.6262340545654297e-001 2.2800317406654358e-001</leafValues></_>
        <_>
          <internalNodes>
            0 -1 195 1891086434 1187322088 -599198235 -174804757
            1365300944 -2113880140 2064187391 -547623489</internalNodes>
          <leafValues>
            -1.3377180695533752e-001 2.6129221916198730e-001</leafValues></_>
        <_>
          <internalNodes>
            0 -1 190 -1621140097 -1080603688 -283875383 2018998521
            -1079879970 -1391577244 1935857420 -15213191</internalNodes>
          <leafValues>
            -1.5659360587596893e-001 2.4046461284160614e-001</leafValues></_>
        <_>
          <internalNodes>
            0 -1 49 2121234611 1485509759 457284959 1438710975
            -1720583429 -257636992 1347222785 1360270408</internalNodes>
          <leafValues>
            -2.2440381348133087e-001 1.6918811202049255e-001</leafValues></_>
        <_>
          <internalNodes>
            0 -1 101 -1587269882 788799919 1372714434 197088278
            965234764 -1164103590 881350524 1115419001</internalNodes>
          <leafValues>
            -4.8214080929756165e-001 6.2615782022476196e-002</leafValues></_>
        <_>
          <internalNodes>
            0 -1 170 -454249859 -625728134 -1469194851 -576788373
            -638584333 -1681912832 -1271072069 -552976239</internalNodes>
          <leafValues>
            -1.2949898838996887e-001 2.6880881190299988e-001</leafValues></_>
        <_>
          <internalNodes>
            0 -1 74 754296860 -1940512164 2009333769 -2001204996
            1515941137 -49698376 -1559254943 1069808</internalNodes>
          <leafValues>
            -3.7057742476463318e-001 9.5210112631320953e-002</leafValues></_>
        <_>
          <internalNodes>
            0 -1 302 17837842 -689243140 648041543 1474620017 5258880
            -386211185 168128428 -1694302215</internalNodes>
          <leafValues>
            -2.3607364296913147e-001 1.4644475281238556e-001</leafValues></_>
        <_>
          <internalNodes>
            0 -1 75 1202611714 -891898355 1971308530 -1304167269
            1906518545 -203531398 -1308012165 -1073492869</internalNodes>
          <leafValues>
            -3.0375942587852478e-001 1.1545886099338531e-001</leafValues></_>
        <_>
          <internalNodes>
            0 -1 262 1212612463 1158015759 210048983 1299568999
            1315236301 1080943479 1631966157 1451622223</internalNodes>
          <leafValues>
            -1.8696384131908417e-001 1.9285455346107483e-001</leafValues></_>
        <_>
          <internalNodes>
            0 -1 110 -241698317 -713621633 1594218452 -547530787
            -1056919082 -19072062 1947549375 -6294274</internalNodes>
          <leafValues>
            -8.7363041937351227e-002 4.1334950923919678e-001</leafValues></_>
        <_>
          <internalNodes>
            0 -1 25 783273986 1120358668 1591729732 -455409546
            -539503016 1539550928 1712615113 251858975</internalNodes>
          <leafValues>
            -4.4272333383560181e-001 8.6948372423648834e-002</leafValues></_>
        <_>
          <internalNodes>
            0 -1 273 -1097162759 -308605222 -1409659676 1784153028
            -1095771938 702433802 967404499 658440</internalNodes>
          <leafValues>
            -2.5150933861732483e-001 1.3879151642322540e-001</leafValues></_>
        <_>
          <internalNodes>
            0 -1 239 -1805830572 -657400396 -654036067 512775612
            -1337077904 1156988817 -1165623656 -1353716468</internalNodes>
          <leafValues>
            -2.2267536818981171e-001 1.6197684407234192e-001</leafValues></_>
        <_>
          <internalNodes>
            0 -1 246 -805354273 -1180025944 1512074538 203830145
            -1928405554 -1612190034 -2030512553 -2012546113</internalNodes>
          <leafValues>
            -1.6021446883678436e-001 2.2047901153564453e-001</leafValues></_>
        <_>
          <internalNodes>
            0 -1 128 134810643 -16219496 34015540 1277071469 43612301
            -574555456 1377116674 1531434396</internalNodes>
          <leafValues>
            -2.2855387628078461e-001 1.5561571717262268e-001</leafValues></_>
        <_>
          <internalNodes>
            0 -1 61 1880574818 1105428492 -1630376336 -1673099248
            -522045650 679625030 1289358720 3411060</internalNodes>
          <leafValues>
            -5.6050574779510498e-001 6.4791552722454071e-002</leafValues></_></weakClassifiers></_>
    <!-- stage 12 -->
    <_>
      <maxWeakCount>44</maxWeakCount>
      <stageThreshold>-1.3689423799514771e+000</stageThreshold>
      <weakClassifiers>
        <_>
          <internalNodes>
            0 -1 266 -180890349 -262819364 -512426531 -2818637
            -1122713680 -1114329471 -1744516163 -1081147651</internalNodes>
          <leafValues>
            -3.2183703780174255e-001 1.2520799040794373e-001</leafValues></_>
        <_>
          <internalNodes>
            0 -1 11 1403247498 1366818579 -781073921 -1747586219
            -116401157 -1325959439 -521563169 -76547333</internalNodes>
          <leafValues>
            -2.9623055458068848e-001 1.5059334039688110e-001</leafValues></_>
        <_>
          <internalNodes>
            0 -1 243 -1649689933 -1632952168 -8400409 -1369482879
            -1409318261 -2003107840 197050498 145637504</internalNodes>
          <leafValues>
            -2.4409551918506622e-001 1.7283378541469574e-001</leafValues></_>
        <_>
          <internalNodes>
            0 -1 30 -1073697572 1480896369 -125559595 1549851862
            -107876511 -128974011 -333140744 -45023572</internalNodes>
          <leafValues>
            -2.1225968003273010e-001 2.1062742173671722e-001</leafValues></_>
        <_>
          <internalNodes>
            0 -1 80 2063053055 -2423023 157023515 2134615202 -283401254
            844767268 101415835 990068754</internalNodes>
          <leafValues>
            -2.4630056321620941e-001 1.3886502385139465e-001</leafValues></_>
        <_>
          <internalNodes>
            0 -1 182 -1078996229 2113665162 -1703420174 323681903
            -4261042 -1082131044 -279512329 -883167654</internalNodes>
          <leafValues>
            -1.5474614500999451e-001 2.4556112289428711e-001</leafValues></_>
        <_>
          <internalNodes>
            0 -1 134 147871089 -1880770051 186390801 88425813 1565120445
            -67383362 184552273 20033</internalNodes>
          <leafValues>
            -3.5975798964500427e-001 8.9751273393630981e-002</leafValues></_>
        <_>
          <internalNodes>
            0 -1 303 335249343 -673224721 265091963 166740615 -609140757
            -1160818218 -1442892949 41966667</internalNodes>
          <leafValues>
            -2.3234629631042480e-001 1.5384528040885925e-001</leafValues></_>
        <_>
          <internalNodes>
            0 -1 123 -166995333 -853043222 311946865 1993060319
            -514762166 -1081629312 1996970870 2145345171</internalNodes>
          <leafValues>
            -2.1105763316154480e-001 1.6970787942409515e-001</leafValues></_>
        <_>
          <internalNodes>
            0 -1 278 -1677271305 -795555212 1078001663 1547828447
            -14632460 -1127186752 -79627028 -808002340</internalNodes>
          <leafValues>
            -1.3460940122604370e-001 2.5506967306137085e-001</leafValues></_>
        <_>
          <internalNodes>
            0 -1 178 2072730176 -1996493990 4929969 -444748840
            -1543520505 -1171227832 -1970337246 152252953</internalNodes>
          <leafValues>
            -3.7720581889152527e-001 1.0167808830738068e-001</leafValues></_>
        <_>
          <internalNodes>
            0 -1 311 -1892614185 -622875681 -721297935 -686687809
            -1639907360 -83039492 -10633223 -68944981</internalNodes>
          <leafValues>
            -1.2229596823453903e-001 2.8425562381744385e-001</leafValues></_>
        <_>
          <internalNodes>
            0 -1 270 -537060425 397877343 2041350207 -166223218
            -1108653122 -1936240437 -1157736421 140984322</internalNodes>
          <leafValues>
            -2.1607182919979095e-001 1.5865239500999451e-001</leafValues></_>
        <_>
          <internalNodes>
            0 -1 76 711937546 248436467 1513672228 122899 1121543696
            1916291057 1142363443 19094807</internalNodes>
          <leafValues>
            -5.0156968832015991e-001 7.2815097868442535e-002</leafValues></_>
        <_>
          <internalNodes>
            0 -1 72 -447750273 618614759 -398393356 1287293156 638317143
            -2068526602 193199472 -532353424</internalNodes>
          <leafValues>
            -3.0467650294303894e-001 1.0811563581228256e-001</leafValues></_>
        <_>
          <internalNodes>
            0 -1 238 1155339967 525279974 663142091 51263157 449023550
            455877134 369789691 105806015</internalNodes>
          <leafValues>
            -2.0961214601993561e-001 1.7002233862876892e-001</leafValues></_>
        <_>
          <internalNodes>
            0 -1 129 -1433759596 -897547616 -1740017438 -199647076
            -1819791166 -487026528 1623782088 -204238640</internalNodes>
          <leafValues>
            -2.6129925251007080e-001 1.2381735444068909e-001</leafValues></_>
        <_>
          <internalNodes>
            0 -1 242 244857717 -643850575 324308857 1140923789
            -1922336906 -1691440967 168229482 235950165</internalNodes>
          <leafValues>
            -2.9498305916786194e-001 1.2153415381908417e-001</leafValues></_>
        <_>
          <internalNodes>
            0 -1 198 1574157151 -37788886 -1142952985 -686038340
            1846787563 -1154833392 2064802747 1460617354</internalNodes>
          <leafValues>
            -1.3355316221714020e-001 2.4973316490650177e-001</leafValues></_>
        <_>
          <internalNodes>
            0 -1 52 -800885534 1938932501 -1625621264 -1647575737
            948605147 -164470384 -2063468291 -922354017</internalNodes>
          <leafValues>
            -2.8425359725952148e-001 1.1314004659652710e-001</leafValues></_>
        <_>
          <internalNodes>
            0 -1 203 -532508140 1222930656 1173799390 -1664084784
            -817827631 -93075286 -649799180 -1616345480</internalNodes>
          <leafValues>
            -2.0084524154663086e-001 1.7133821547031403e-001</leafValues></_>
        <_>
          <internalNodes>
            0 -1 212 -154696130 1993064527 982577906 1079889874
            -289803704 1073892946 -665001802 3131866</internalNodes>
          <leafValues>
            -3.0346888303756714e-001 1.1366873979568481e-001</leafValues></_>
        <_>
          <internalNodes>
            0 -1 56 -1113908749 464139845 1722094671 356722941 518465967
            -608495406 710545931 135860242</internalNodes>
          <leafValues>
            -2.5693967938423157e-001 1.3136662542819977e-001</leafValues></_>
        <_>
          <internalNodes>
            0 -1 62 -21569 -1418039010 22760671 528050442 -1163980918
            -1158704981 1034423115 34799618</internalNodes>
          <leafValues>
            -2.2904074192047119e-001 1.5013538300991058e-001</leafValues></_>
        <_>
          <internalNodes>
            0 -1 297 -143927961 1305462571 1206803207 1098862437
            -179309144 1818518628 2110640010 -431501534</internalNodes>
          <leafValues>
            -1.3115473091602325e-001 2.6274228096008301e-001</leafValues></_>
        <_>
          <internalNodes>
            0 -1 245 -1441920792 -796742804 -1354724702 1830316260
            -1886481404 -1729838904 11592914 -931073544</internalNodes>
          <leafValues>
            -2.9380446672439575e-001 1.1338660120964050e-001</leafValues></_>
        <_>
          <internalNodes>
            0 -1 263 -569420937 -1061235617 553666381 1325940805
            425910244 -20997187 436208585 202378265</internalNodes>
          <leafValues>
            -2.3341764509677887e-001 1.4326746761798859e-001</leafValues></_>
        <_>
          <internalNodes>
            0 -1 201 780881962 -2068938007 -1776568844 579896031
            1512185649 -1371149060 1314145344 88262773</internalNodes>
          <leafValues>
            -4.0200769901275635e-001 8.3614073693752289e-002</leafValues></_>
        <_>
          <internalNodes>
            0 -1 307 -981598217 -10552325 -1276527653 1435607039
            -1486823445 -611279894 -134086661 -1626170422</internalNodes>
          <leafValues>
            -1.0845970362424850e-001 3.1808108091354370e-001</leafValues></_>
        <_>
          <internalNodes>
            0 -1 16 787556942 780933447 -191582726 1755208730 1896316502
            -205459553 1237411021 -1006186371</internalNodes>
          <leafValues>
            -3.4894618391990662e-001 9.6312843263149261e-002</leafValues></_>
        <_>
          <internalNodes>
            0 -1 89 1196945716 -781914916 -325157443 -652966660
            957411444 -992471408 152151263 -574294422</internalNodes>
          <leafValues>
            -1.6816736757755280e-001 1.9677008688449860e-001</leafValues></_>
        <_>
          <internalNodes>
            0 -1 163 -809560361 -318035744 486828079 1597849089
            1048801615 -351075932 173429875 -547667500</internalNodes>
          <leafValues>
            -1.6138750314712524e-001 2.1435745060443878e-001</leafValues></_>
        <_>
          <internalNodes>
            0 -1 43 1587496535 192062125 248925686 215339759 1527976276
            -45848747 -1705453179 -553642992</internalNodes>
          <leafValues>
            -2.1369446814060211e-001 1.5262560546398163e-001</leafValues></_>
        <_>
          <internalNodes>
            0 -1 105 948638123 1879039337 895239629 -683339479
            2026750087 -1928870874 1107383046 320107052</internalNodes>
          <leafValues>
            -2.4196352064609528e-001 1.4304961264133453e-001</leafValues></_>
        <_>
          <internalNodes>
            0 -1 79 -601882635 -733456300 -560420675 1427993413
            -103024655 -682109616 -146670658 -14723681</internalNodes>
          <leafValues>
            -1.0029658675193787e-001 3.3617955446243286e-001</leafValues></_>
        <_>
          <internalNodes>
            0 -1 165 -298869774 -789013118 -698306844 -1697514032
            1074852916 -863899632 1396748745 -140059393</internalNodes>
          <leafValues>
            -1.6818805038928986e-001 2.0418272912502289e-001</leafValues></_>
        <_>
          <internalNodes>
            0 -1 285 -542114857 -169891141 1384725987 -1655839621
            -1074860289 447226496 1997493903 336285914</internalNodes>
          <leafValues>
            -1.4387977123260498e-001 2.2444370388984680e-001</leafValues></_>
        <_>
          <internalNodes>
            0 -1 227 198138975 -1032187140 375160799 -1886247330
            -18995168 -932035014 991014876 -582080802</internalNodes>
          <leafValues>
            -1.6317148506641388e-001 2.0542249083518982e-001</leafValues></_>
        <_>
          <internalNodes>
            0 -1 262 1131249535 1236528445 477656911 1681257069
            1220923214 218629944 1308679141 1287780623</internalNodes>
          <leafValues>
            -2.2690798342227936e-001 1.4970107376575470e-001</leafValues></_>
        <_>
          <internalNodes>
            0 -1 97 -1538219436 -1107014945 924433407 -20193191
            -1459325035 -1196634454 -1828700279 -1392479614</internalNodes>
          <leafValues>
            -1.8295300006866455e-001 1.8376305699348450e-001</leafValues></_>
        <_>
          <internalNodes>
            0 -1 27 1380287042 1342214408 404092194 -2059341403
            810616260 295245043 150678124 755993354</internalNodes>
          <leafValues>
            -6.0229885578155518e-001 6.1263572424650192e-002</leafValues></_>
        <_>
          <internalNodes>
            0 -1 154 587667546 -999865492 1769135379 -169709324
            -1551589116 1362363233 -2056618572 -650947136</internalNodes>
          <leafValues>
            -2.3816831409931183e-001 1.3816644251346588e-001</leafValues></_>
        <_>
          <internalNodes>
            0 -1 280 1411539156 818420384 942448053 358162174 -150668495
            -516912907 -1723539464 -83645469</internalNodes>
          <leafValues>
            -2.0857025682926178e-001 1.6465216875076294e-001</leafValues></_>
        <_>
          <internalNodes>
            0 -1 300 458275219 -539297553 -950970431 1578168095
            374345361 -644549125 -49168389 -1685995557</internalNodes>
          <leafValues>
            -1.6169065237045288e-001 2.1063157916069031e-001</leafValues></_></weakClassifiers></_>
    <!-- stage 13 -->
    <_>
      <maxWeakCount>44</maxWeakCount>
      <stageThreshold>-1.3123290538787842e+000</stageThreshold>
      <weakClassifiers>
        <_>
          <internalNodes>
            0 -1 132 -538446849 -129357328 -1209016833 -572484284
            2415344 -1340079183 -92034305 -9393349</internalNodes>
          <leafValues>
            -2.8503248095512390e-001 1.9975148141384125e-001</leafValues></_>
        <_>
          <internalNodes>
            0 -1 17 2114649598 -297332476 -1901690754 -554220013
            -537488194 -73583 -280695937 -582574917</internalNodes>
          <leafValues>
            -3.6483851075172424e-001 1.0493007302284241e-001</leafValues></_>
        <_>
          <internalNodes>
            0 -1 81 -20477361 -1080194821 975024925 716483022 -134747481
            -1097880756 -75822297 167905792</internalNodes>
          <leafValues>
            -2.4218688905239105e-001 1.4178384840488434e-001</leafValues></_>
        <_>
          <internalNodes>
            0 -1 162 -774152150 1493690659 859500786 895470109
            1025555278 -1467378725 467623843 382357</internalNodes>
          <leafValues>
            -3.6810734868049622e-001 1.1950717121362686e-001</leafValues></_>
        <_>
          <internalNodes>
            0 -1 253 -1414810702 -689121050 -109324929 -171054609
            -1302679120 -256872240 -1424302401 -67479350</internalNodes>
          <leafValues>
            -1.4937493205070496e-001 2.3841606080532074e-001</leafValues></_>
        <_>
          <internalNodes>
            0 -1 91 202777104 -2075074179 -1617110939 -35899906
            335831541 -267380047 -2011103284 -50218358</internalNodes>
          <leafValues>
            -1.7986577749252319e-001 1.8832901120185852e-001</leafValues></_>
        <_>
          <internalNodes>
            0 -1 310 402112507 -172284161 1436907647 65234103 699927432
            -1082326845 -1378977877 8389122</internalNodes>
          <leafValues>
            -2.7102461457252502e-001 1.1643899232149124e-001</leafValues></_>
        <_>
          <internalNodes>
            0 -1 231 -338745551 -1647718659 -661005059 160493503
            -522595724 -1377636921 -829912464 -1049502608</internalNodes>
          <leafValues>
            -2.5750041007995605e-001 1.3031610846519470e-001</leafValues></_>
        <_>
          <internalNodes>
            0 -1 136 -1104455606 -2028063809 -765666576 931072429
            -187664001 -759991595 356074383 520835483</internalNodes>
          <leafValues>
            -3.2079154253005981e-001 1.0853610187768936e-001</leafValues></_>
        <_>
          <internalNodes>
            0 -1 73 -997227275 350028884 1533431581 1439236236 -11688013
            -207265719 -1411735569 1360216336</internalNodes>
          <leafValues>
            -1.9908197224140167e-001 1.4667889475822449e-001</leafValues></_>
        <_>
          <internalNodes>
            0 -1 1 211683987 718546456 -785919981 -329464492 -901297931
            -1184948056 -844184972 144452628</internalNodes>
          <leafValues>
            -4.0355655550956726e-001 7.8406453132629395e-002</leafValues></_>
        <_>
          <internalNodes>
            0 -1 302 -884933641 -673713157 -184486185 -537346097
            -1030709317 -84082754 -16453953 -1327109</internalNodes>
          <leafValues>
            -9.1541729867458344e-002 3.3744251728057861e-001</leafValues></_>
        <_>
          <internalNodes>
            0 -1 93 602931191 1852634888 1191236463 1945430309 710177575
            33877517 619112043 1715928422</internalNodes>
          <leafValues>
            -2.0922683179378510e-001 1.4473091065883636e-001</leafValues></_>
        <_>
          <internalNodes>
            0 -1 116 690161856 974502904 -1601574528 -753982563
            -903213504 -1977572576 26077703 -582274923</internalNodes>
          <leafValues>
            -5.5229258537292480e-001 5.7456456124782562e-002</leafValues></_>
        <_>
          <internalNodes>
            0 -1 275 -1623469573 -323454344 1815527018 -1065612188
            -1196887368 -1230448134 -200090629 -93663014</internalNodes>
          <leafValues>
            -1.1114084720611572e-001 2.9730203747749329e-001</leafValues></_>
        <_>
          <internalNodes>
            0 -1 153 -936897728 -696197507 2035874234 -552323669
            -133434384 -90136390 -1038074932 -1154421006</internalNodes>
          <leafValues>
            -1.7551058530807495e-001 1.7763397097587585e-001</leafValues></_>
        <_>
          <internalNodes>
            0 -1 193 722991093 1186660602 710295789 172196515 520895410
            589963400 574882400 51200080</internalNodes>
          <leafValues>
            -3.2398295402526855e-001 9.8495848476886749e-002</leafValues></_>
        <_>
          <internalNodes>
            0 -1 139 1076280642 -934384632 1080507642 1923924958
            1232657152 -882007016 1092705700 -787292846</internalNodes>
          <leafValues>
            -3.4310624003410339e-001 9.9518038332462311e-002</leafValues></_>
        <_>
          <internalNodes>
            0 -1 14 210999799 921912315 992286061 228138011 1823116163
            1775317027 135928379 202575994</internalNodes>
          <leafValues>
            -2.2682397067546844e-001 1.3869400322437286e-001</leafValues></_>
        <_>
          <internalNodes>
            0 -1 251 -108152206 -1704289606 -674788099 -33587205
            -419808096 203948032 -1095406661 -2110124016</internalNodes>
          <leafValues>
            -1.8116649985313416e-001 1.7604048550128937e-001</leafValues></_>
        <_>
          <internalNodes>
            0 -1 306 468891611 -939934929 765525407 198496976 60826378
            -240100562 -1630464129 134281858</internalNodes>
          <leafValues>
            -2.2420385479927063e-001 1.3899330794811249e-001</leafValues></_>
        <_>
          <internalNodes>
            0 -1 53 1696142289 1327902632 379027628 69201923 -1365045165
            -47966632 7362560 71582736</internalNodes>
          <leafValues>
            -3.6441722512245178e-001 8.7190546095371246e-002</leafValues></_>
        <_>
          <internalNodes>
            0 -1 296 -800344080 -671047616 283173905 1372951700
            -838404144 -1493111342 1984294300 -552951910</internalNodes>
          <leafValues>
            -1.5326695144176483e-001 2.0549920201301575e-001</leafValues></_>
        <_>
          <internalNodes>
            0 -1 257 1112676607 -599044772 1159019941 273898021
            -1899303414 -1699677012 -2037203213 -1927687000</internalNodes>
          <leafValues>
            -1.9551566243171692e-001 1.5603403747081757e-001</leafValues></_>
        <_>
          <internalNodes>
            0 -1 92 190769157 58524575 -667397984 236504638 573185907
            -1497739342 856779300 180802</internalNodes>
          <leafValues>
            -4.0345782041549683e-001 8.0991022288799286e-002</leafValues></_>
        <_>
          <internalNodes>
            0 -1 211 227678256 937362120 -10774705 -607190547
            -1087726902 -1358393310 929227082 198054472</internalNodes>
          <leafValues>
            -2.7443867921829224e-001 1.1138080805540085e-001</leafValues></_>
        <_>
          <internalNodes>
            0 -1 293 -1189113189 416253671 592386915 670384135
            -338847591 -1186397943 994365867 185303627</internalNodes>
          <leafValues>
            -1.6269187629222870e-001 1.9278772175312042e-001</leafValues></_>
        <_>
          <internalNodes>
            0 -1 29 272653652 -736842668 72372564 281028625 2018823120
            -925324632 1543561212 -137041972</internalNodes>
          <leafValues>
            -2.4039995670318604e-001 1.3367454707622528e-001</leafValues></_>
        <_>
          <internalNodes>
            0 -1 284 -1483242637 1330653706 604316575 265158918
            597320377 8586128 488734435 2514948</internalNodes>
          <leafValues>
            -2.9935440421104431e-001 1.0414171218872070e-001</leafValues></_>
        <_>
          <internalNodes>
            0 -1 104 808138792 1139351602 1901808698 1581371482
            1224638920 1345422145 319304976 -750567292</internalNodes>
          <leafValues>
            -2.2667238116264343e-001 1.4222787320613861e-001</leafValues></_>
        <_>
          <internalNodes>
            0 -1 274 203114053 -1839864196 -124924424 -1474511885
